svm_type c_svc
kernel_type linear
nr_class 8
total_sv 292
rho -1.21114 -0.605644 0.280449 -0.442746 1.42142 1.47126 1.00003 0.401965 0.357864 -0.00182899 1.5631 0.371098 0.318907 0.201069 -0.403382 0.564777 0.613354 0.149576 -1.05003 0.670632 -0.0035137 -0.023675 0.515476 0.359476 0.235151 -0.14805 -0.167799 -0.466674
label 1 2 3 4 5 6 7 8
nr_sv 85 10 12 14 6 90 62 13
SV
0 0 0 0 5 0 0 1:0.92183 2:0.075419 3:0.017332 4:0.0038506 5:0.00031081 6:0.36134 7:0.11688 8:0.001008 
0 0 0 0 5 0 0 1:0.96089 2:0.068398 3:0.015796 4:0.0041367 5:0.00043549 6:0.25011 7:0.09584 8:0.0010575 
0 0 0 0 5 0 0 1:0.98402 2:0.035214 3:0.015905 4:0.0051765 5:0.00054087 6:0.15573 7:0.077019 8:0.0012741 
0 0 0 0 5 5 0 1:0.86703 2:0.062239 3:0.014433 4:0.0031654 5:0.0003093 6:0.47425 7:0.13876 8:0.00074772 
0 0 0 0 5 5 0 1:0.78346 2:0.076966 3:0.0074214 4:0.0028305 5:0.00025226 6:0.59666 7:0.15556 8:0.0006413 
0 0 0 0 5 5 0 1:0.85945 2:0.076393 3:0.0087042 4:0.0057231 5:0.00037567 6:0.48797 7:0.13145 8:0.0012586 
0 0 0 0 5 5 0 1:0.7243 2:0.11814 3:0.011312 4:0.010131 5:0.00042234 6:0.66455 7:0.13991 8:0.0020974 
0 0 0 0 5 5 0 1:0.95898 2:0.042672 3:0.014344 4:0.0023653 5:0.00040968 6:0.2614 7:0.099951 8:0.00067343 
0 0 0 0 5 5 0 1:0.97309 2:0.022579 3:0.010348 4:0.0022543 5:0.00079344 6:0.21007 7:0.091334 8:0.0008749 
0 0 0 0 5 5 0 1:0.97962 2:0.011348 3:0.0094247 4:0.0017003 5:0.0020368 6:0.18006 7:0.087701 8:0.0021773 
0 0 0 0 5 5 0 1:0.87377 2:0.021949 3:0.042859 4:0.010319 5:0.00094002 6:0.4655 7:0.13127 8:0.013088 
0 0 0 0 5 5 0 1:0.95921 2:0.015904 3:0.038992 4:0.010997 5:0.0010203 6:0.25979 7:0.10147 8:0.015347 
0 0 0 0 0 5 0 1:0.987 2:0.01017 3:0.036312 4:0.0092129 5:0.0011128 6:0.1374 7:0.071786 8:0.01716 
0 0.5130677686485136 0 0 0 0 0 1:0.998 2:0.0068297 3:0.031953 4:0.0083245 5:0.0020233 6:0.032922 7:0.035265 8:0.023132 
0 5 0 0 0 0 0 1:0.99871 2:0.0056357 3:0.031642 4:0.0073906 5:0.0024318 6:0.015611 7:0.024887 8:0.024883 
0 0 0 0 5 5 0 1:0.73483 2:0.023826 3:0.047904 4:0.0099285 5:0.00094243 6:0.65687 7:0.15968 8:0.0090548 
0 0 0 0 5 5 0 1:0.54243 2:0.026769 3:0.042871 4:0.0092321 5:0.00091907 6:0.81943 7:0.17781 8:0.0061556 
0 0 0 0 5 5 0 1:0.69931 2:0.028604 3:0.05328 4:0.013301 5:0.0010622 6:0.69615 7:0.1482 8:0.023248 
0 0 0 0 5 5 0 1:0.3537 2:0.031056 3:0.052376 4:0.014333 5:0.0009586 6:0.92342 7:0.13034 8:0.035797 
0 0 0 0 5 5 0 1:0.95247 2:0.011339 3:0.032028 4:0.0074786 5:0.00093541 6:0.2831 7:0.1069 8:0.0048051 
0 0 0 0 5 5 0 1:0.97439 2:0.0060294 3:0.026694 4:0.0057166 5:0.0011939 6:0.20243 7:0.09375 8:0.00266 
0 0 0 0 0.0878391294828608 5 0 1:0.98356 2:0.0036167 3:0.022802 4:0.0040583 5:0.0022166 6:0.15825 7:0.083739 8:0.0029697 
0 0 0 0 5 0 0 1:0.83256 2:0.19316 3:0.0095194 4:0.0014488 5:0.0002796 6:0.51131 7:0.089394 8:0.00099454 
0 0 0 0 5 0 0 1:0.91835 2:0.16708 3:0.014172 4:0.0015201 5:0.0003187 6:0.34862 7:0.083576 8:0.00076517 
0 0 0 0 5 0 0 1:0.95993 2:0.12784 3:0.012595 4:0.0018226 5:0.00048925 6:0.23834 7:0.072334 8:0.00068402 
0 0 0 0 5 0 0 1:0.9815 2:0.091751 3:0.015557 4:0.0022783 5:0.00093086 6:0.15681 7:0.058342 8:0.0010183 
0 0 0 0 0.0681023567926775 0 0 1:0.99201 2:0.075633 3:0.015237 4:0.0023157 5:0.0018506 6:0.08735 7:0.048268 8:0.0021294 
0 0 0 0 5 0 0 1:0.73204 2:0.20002 3:0.0074954 4:0.001227 5:0.0002104 6:0.645 7:0.089561 8:0.00061918 
0 0 0 0 5 5 0 1:0.58853 2:0.13159 3:0.0038596 4:0.0011296 5:0.00015897 6:0.79319 7:0.084569 8:0.00064349 
0 0 0 0 5 0 0 1:0.81072 2:0.21511 3:0.0059911 4:0.0016563 5:0.00026486 6:0.53645 7:0.09298 8:0.0008671 
0 0 0 0 5 0 0 1:0.7604 2:0.28364 3:0.0078168 4:0.0020574 5:0.00025872 6:0.57482 7:0.10419 8:0.0012591 
0 0 0 0 5 0 0 1:0.8519 2:0.16706 3:0.0082305 4:0.0012372 5:0.00035239 6:0.48889 7:0.08529 8:0.00059477 
0 0 0 0 5 0 0 1:0.86577 2:0.14361 3:0.0053785 4:0.0012413 5:0.00053549 6:0.47159 7:0.08596 8:0.00058303 
0 0 0 0 5 0 0 1:0.87576 2:0.11912 3:0.0054893 4:0.0010403 5:0.0017072 6:0.45835 7:0.093487 8:0.0018272 
0 0 0 0 5 5 0 1:0.91192 2:0.021944 3:0.035606 4:0.063223 5:0.01289 6:0.38323 7:0.12471 8:0.0085444 
0 0 0 0 0 1.736881281818179 0 1:0.96895 2:0.019956 3:0.031891 4:0.048601 5:0.010885 6:0.21941 7:0.095023 8:0.0077322 
0 0 5 0 0 0 0 1:0.98594 2:0.025167 3:0.035418 4:0.062846 5:0.024487 6:0.1249 7:0.076031 8:0.010396 
0 0 0 2.838798527517646 0 0 0 1:0.99543 2:0.026286 3:0.028085 4:0.019241 5:0.021695 6:0.063076 7:0.052047 8:0.010745 
0 0 0 0 5 5 0 1:0.8081 2:0.022594 3:0.032388 4:0.042935 5:0.0090891 6:0.56712 7:0.14772 8:0.006839 
0 0 0 0 5 5 0 1:0.5136 2:0.030952 3:0.026644 4:0.036986 5:0.011711 6:0.83942 7:0.1685 8:0.00583 
0 0 0 0 5 5 0 1:0.69718 2:0.028931 3:0.041114 4:0.071597 5:0.023449 6:0.69555 7:0.14771 8:0.010986 
0 0 0 0.1203272128107549 5 5 0 1:0.23885 2:0.035608 3:0.035986 4:0.043911 5:0.016204 6:0.95839 7:0.13997 8:0.010019 
0 0 0 0 0 5 0 1:0.96124 2:0.016697 3:0.026 4:0.055789 5:0.016486 6:0.24659 7:0.10407 8:0.0061473 
0 0 0 0 0 5 0 1:0.98276 2:0.018774 3:0.023094 4:0.012369 5:0.017188 6:0.15981 7:0.085261 8:0.006147 
0 0 0 0 0 5 0 1:0.99096 2:0.013339 3:0.016422 4:0.0033165 5:0.0029278 6:0.11142 7:0.071511 8:0.0029671 
0 0 0 0 4.409825154340203 0 0 1:0.51209 2:0.32577 3:0.021391 4:0.26638 5:0.0027285 6:0.54381 7:0.46846 8:0.21221 
0 0 3.288944726984802 0 5 5 0 1:0.28861 2:0.33386 3:0.013251 4:0.2302 5:0.0022297 6:0.62592 7:0.58806 8:0.1203 
0 0 3.963259965534561 0 0 0 5 1:0.38381 2:0.405 3:0.019808 4:0.31648 5:0.0036006 6:0.56994 7:0.38426 8:0.34002 
1.345409608291351 0 0 0 5 0 5 1:0.14382 2:0.42502 3:0.020792 4:0.23885 5:0.0035233 6:0.68207 7:0.34672 8:0.39464 
0 0 0 0 0 5 0 1:0.93452 2:0.10137 3:0.0095562 4:0.054582 5:0.0015715 6:0.13983 7:0.30371 8:0.039022 
0 0 0 0 5 5 0 1:0.92916 2:0.075607 3:0.01121 4:0.011238 5:0.0019936 6:0.11301 7:0.34333 8:0.0067313 
0 0 0 0 0 0 4.179888391500954 1:0.97827 2:0.024303 3:0.018724 4:0.03619 5:0.0039653 6:0.04444 7:0.083167 8:0.1784 
0 0 3.74530877103326 0 0 0 0 1:0.99471 2:0.013501 3:0.01461 4:0.028175 5:0.0063033 6:0.0019359 7:0.026648 8:0.092741 
0 0 0 0.5607091162895705 0 0 0 1:0.99485 2:0.012721 3:0.012958 4:0.018643 5:0.0093661 6:0.001154 7:0.020288 8:0.095399 
0 0 0 0 0 0 5 1:0.94184 2:0.038515 3:0.041906 4:0.049339 5:0.0042982 6:0.12884 7:0.17165 8:0.24736 
0 0 0 0 0 5 5 1:0.79442 2:0.062073 3:0.068752 4:0.075612 5:0.005525 6:0.33299 7:0.36323 8:0.3343 
0 0 0 0 0 0 5 1:0.88132 2:0.056629 3:0.049149 4:0.066096 5:0.0054056 6:0.16935 7:0.18599 8:0.38728 
0 0.4082468798271 0 0.140205072313399 0 5 5 1:0.28362 2:0.097676 3:0.10224 4:0.093385 5:0.0060764 6:0.55532 7:0.39413 8:0.65352 
5 0 0 0 5 0 0 1:0.84467 2:0.52789 3:0.019989 4:0.0041811 5:0.00039457 6:0.048078 7:0.07011 8:0.014527 
4.533195089098109 0 0 0 5 0 0 1:0.92567 2:0.3729 3:0.023747 4:0.0055166 5:0.00067874 6:0.030338 7:0.047611 8:0.017451 
0 0 0 0 5 0 0 1:0.96129 2:0.26912 3:0.038402 4:0.0045073 5:0.00070745 6:0.020485 7:0.03465 8:0.019463 
5 0 0 0 5 0 0 1:0.65367 2:0.74441 3:0.023062 4:0.0049465 5:0.0004678 6:0.085355 7:0.10292 8:0.01145 
5 0 0 0 5 0 0 1:0.40865 2:0.88916 3:0.025315 4:0.0049539 5:0.00045319 6:0.15084 7:0.13738 8:0.010269 
5 0 0 0 5 0 0 1:0.50021 2:0.85478 3:0.025213 4:0.0052384 5:0.00040797 6:0.10038 7:0.088351 8:0.024492 
5 0 0 0.3932489788886971 5 0 0 1:0.12702 2:0.95923 3:0.02899 4:0.0060963 5:0.00043941 6:0.22481 7:0.10581 8:0.033526 
0 0 0 0 5 0 0 1:0.94481 2:0.31832 3:0.027647 4:0.0054749 5:0.00076893 6:0.032322 7:0.064056 8:0.0083947 
0 0 0 0 5 0 0 1:0.73446 2:0.30986 3:0.071791 4:0.018993 5:0.00099894 6:0.5282 7:0.28266 8:0.012423 
0 0 0 0 5 0 0 1:0.93179 2:0.22268 3:0.056985 4:0.014919 5:0.00080943 6:0.22972 7:0.16052 8:0.012959 
0 2.772342370340226 0 0 0 0 0 1:0.9863 2:0.13262 3:0.05301 4:0.010781 5:0.0010453 6:0.052179 7:0.06159 8:0.013642 
0 5 0 0 0 0 0 1:0.99506 2:0.081466 3:0.043882 4:0.008914 5:0.0015181 6:0.016272 7:0.028248 8:0.012161 
0 0 0 0 5 5 0 1:0.3863 2:0.33557 3:0.061716 4:0.01578 5:0.00071367 6:0.80205 7:0.30121 8:0.0091779 
0 0 0 0 5 5 0 1:0.19502 2:0.31259 3:0.035548 4:0.0098733 5:0.00052623 6:0.89966 7:0.23124 8:0.0046725 
0 0 0 0 5 0 0 1:0.27316 2:0.36087 3:0.065328 4:0.021311 5:0.0010168 6:0.84496 7:0.276 8:0.01723 
0 0 0 0 5 5 0 1:0.06181 2:0.27009 3:0.042734 4:0.014527 5:0.00068277 6:0.94534 7:0.1653 8:0.014012 
0 0 0 0 5 0 0 1:0.94404 2:0.16245 3:0.050409 4:0.0087075 5:0.00051876 6:0.22564 7:0.16979 8:0.0054614 
0 0 0 0 5 0 0 1:0.97534 2:0.1078 3:0.030671 4:0.0048529 5:0.00053645 6:0.13771 7:0.13095 8:0.0028722 
0 0 0 0 5 0 0 1:0.97203 2:0.10938 3:0.033803 4:0.0045874 5:0.00029334 6:0.18482 7:0.088704 8:0.00089262 
0 0 0 0 5 0 0 1:0.87491 2:0.17233 3:0.039838 4:0.0056555 5:0.00037824 6:0.41964 7:0.16469 8:0.0010452 
0 0 0 0 5 0 0 1:0.93469 2:0.18456 3:0.046209 4:0.0090209 5:0.00052533 6:0.2776 7:0.11397 8:0.0033289 
0 0 0 0 5 0 0 1:0.43739 2:0.29018 3:0.074498 4:0.014902 5:0.00076721 6:0.82601 7:0.19074 8:0.0060084 
0 0 0 0 5 0 0 1:0.9816 2:0.075271 3:0.040703 4:0.0033225 5:0.00034613 6:0.16345 7:0.049162 8:0.00093914 
0 0 0 0 5 0 0 1:0.94615 2:0.10495 3:0.053116 4:0.0042211 5:0.00038696 6:0.2902 7:0.082073 8:0.001355 
0 0 0 0 5 0 0 1:0.82389 2:0.15165 3:0.057946 4:0.0052636 5:0.00046224 6:0.52663 7:0.13223 8:0.0015765 
0 0 0 0 5 0 0 1:0.909 2:0.14783 3:0.055588 4:0.0058975 5:0.00052786 6:0.3779 7:0.07704 8:0.001857 
0 0.7626701451975789 0 0 5 5 0 1:0.38587 2:0.20807 3:0.096575 4:0.0083952 5:0.00067596 6:0.8794 7:0.15829 8:0.0030663 
-5 0 0 0 5 0 0 1:0.39339 2:0.86269 3:0.017166 4:0.020998 5:0.011085 6:0.12262 7:0.085842 8:0.27883 
-5 0 0 0 5 0 0 1:0.43426 2:0.89766 3:0.022068 4:0.0011871 5:0.00023545 6:0.063108 7:0.033911 8:0.00036026 
-5 0 0 1.035290319559524 5 0 0 1:0.62573 2:0.77426 3:0.049589 4:0.010503 5:0.010852 6:0.01919 7:0.076467 8:0.0089583 
-0 0 0 0 5 0 0 1:0.29095 2:0.93445 3:0.025613 4:0.0029445 5:0.0004551 6:0.15081 7:0.13685 8:0.0029997 
-5 3.843232812212528 3.720513046890221 1.061423147114124 5 5 3.610244330673423 1:0.64484 2:0.65773 3:0.047352 4:0.024208 5:0.0047749 6:0.059391 7:0.38103 8:0.0023556 
-5 0 0 0 5 0 0 1:0.50708 2:0.83925 3:0.03021 4:0.01957 5:0.0054375 6:0.1785 7:0.072866 8:0.0046695 
-5 0 0 0 5 0 0 1:0.53915 2:0.84108 3:0.014901 4:0.010963 5:0.0065649 6:0.035771 7:0.015291 8:0.0014888 
-0.8786046973894603 0 0 0 5 0 0 1:0.44336 2:0.89435 3:0.015049 4:0.0016608 5:0.013096 6:0.042755 7:0.036527 8:0.0027367 
-0 0 0 0 5 0 0 1:0.36873 2:0.91827 3:0.012939 4:0.0087311 5:0.0031339 6:0.11722 7:0.082512 8:0.0037066 
-0 0 0 0 5 0 0 1:0.31185 2:0.93873 3:0.02228 4:0.0020139 5:0.00041664 6:0.14179 7:0.030474 8:0.00044632 
-0 -0.8948611687320834 0 0 0 0 0 1:0.011658 2:0.29277 3:0.54918 4:0.0033895 5:0.0031229 6:0.61731 7:0.4811 8:0.00027717 
-1.622222099854766 -1.782616020306437 0 0 0 3.599000283122269 0 1:0.80296 2:0.099255 3:0.45013 4:0.0034165 5:0.0035161 6:0.25654 7:0.27739 8:0.0018581 
-2.834105064158651 -0 0 0 1.357937963965631 0 0 1:0.91162 2:0.0036766 3:0.41059 4:0.0058426 5:0.0038702 6:0.016405 7:0.0052808 8:0.003102 
-5 -0.7691934033818778 0 2.522087622996009 5 0 0 1:0.92167 2:0.0019028 3:0.38772 4:0.0052834 5:0.0042007 6:0.011171 7:0.0039391 8:0.0030248 
-5 -0 2.601274901042931 0 5 2.69637713040611 0 1:0.92271 2:0.0028974 3:0.38403 4:0.0057234 5:0.0043765 6:0.02901 7:0.014656 8:0.002482 
-0 -0 2.626428136380741 0 0 0 5 1:0.81789 2:0.04528 3:0.45838 4:0.13038 5:0.0095524 6:0.033974 7:0.076471 8:0.30789 
-0 -0 0 0 0 0 4.37099844185874 1:0.026906 2:0.045703 3:0.55551 4:0.22454 5:0.0018752 6:0.50035 7:0.61404 8:0.10378 
-0 -0 0 0.2938310329281536 0 4.069682315216909 5 1:0.019667 2:0.045723 3:0.47718 4:0.16018 5:0.0011881 6:0.55781 7:0.65528 8:0.060057 
-0 -0 0 0 0 0 0.1346438625473166 1:0.026959 2:0.066167 3:0.64555 4:0.18339 5:0.0071385 6:0.56938 7:0.24284 8:0.40164 
-0 -0.3965622197921305 2.253976555213369 0 0 0 0 1:0.76037 2:0.027084 3:0.46367 4:0.17154 5:0.0047946 6:0.1024 7:0.39766 8:0.089705 
-0 -0 0 0.508171081833987 0 0 0 1:0.040377 2:0.030162 3:0.92434 4:0.24076 5:0.056797 6:0.051737 7:0.18086 8:0.2156 
-0 -0 0 0 1.103966354905376 5 0 1:0.81155 2:0.022553 3:0.43484 4:0.0094613 5:0.003533 6:0.16564 7:0.35241 8:0.0076201 
-0 -0 -0 0 0 0 0.09055438354351117 1:0.80879 2:0.048238 3:0.045462 4:0.25596 5:0.39803 6:0.023191 7:0.23479 8:0.24872 
-5 -0.2457509731617148 -3.370103583724804 0 0.2390740823845097 3.728141697535636 5 1:0.83591 2:0.047835 3:0.043494 4:0.21073 5:0.39267 6:0.02727 7:0.19937 8:0.2408 
-0.2365410677587977 -2.411571010343883 -0 0 5 5 0 1:0.80252 2:0.035046 3:0.013838 4:0.32839 5:0.24182 6:0.017921 7:0.42694 8:0.074957 
-0 -0 -0 0 0 0 5 1:0.092101 2:0.097428 3:0.03768 4:0.5645 5:0.022655 6:0.63545 7:0.50744 8:0.01213 
-4.896103809532616 -0.03501209358993632 -0.3492340324818939 0 2.805541955404229 4.23554835751052 2.692920844292649 1:0.051456 2:0.085567 3:0.01771 4:0.5271 5:0.018477 6:0.62164 7:0.5701 8:0.010102 
-0 -0.6417472396511041 -0 0 0 0 0 1:0.058269 2:0.15891 3:0.075396 4:0.64286 5:0.022621 6:0.61272 7:0.41804 8:0.041302 
-0 -0 -0 0 0 0 2.807181566530276 1:0.64259 2:0.062981 3:0.017317 4:0.66038 5:0.054163 6:0.063948 7:0.20022 8:0.3156 
-0 -0 -0 0 0 0 2.534811194006554 1:0.043495 2:0.068429 3:0.010019 4:0.81367 5:0.019972 6:0.43224 7:0.29449 8:0.23939 
-5 -0.1187238590364297 -3.762341976430343 0 0 0 0 1:0.88464 2:0.062444 3:0.044749 4:0.44315 5:0.11759 6:0.007513 7:0.015696 8:0.031668 
-0 -0 -0 3.379198407460946 0 0 0 1:0.8691 2:0.041784 3:0.024721 4:0.22961 5:0.43428 6:0.023102 7:0.010211 8:0.018827 
-0.8648685862612088 -0.2677078711071532 -0 5 3.365347218442542 0 0 1:0.87946 2:0.038747 3:0.020701 4:0.20955 5:0.42393 6:0.019844 7:0.0083026 8:0.022959 
-0 -0 -0 0.5229107274564525 0 0 0 1:0.55556 2:0.087008 3:0.058671 4:0.4878 5:0.66097 6:0.063139 7:0.034549 8:0.017948 
-0 -0 -0 3.608253974625402 0 0 0 1:0.21214 2:0.10371 3:0.062511 4:0.61889 5:0.7397 6:0.089117 7:0.042358 8:0.020298 
-0 -0 -0 5 0 0 0 1:0.87794 2:0.028201 3:0.018149 4:0.20759 5:0.42751 6:0.023315 7:0.033828 8:0.023297 
-0 -0 -2.863757575637879 -0.4918500243377663 0 0 0 1:0.58444 2:0.031319 3:0.29324 4:0.091301 5:0.74983 6:0.010938 7:0.018976 8:0.020076 
-0 -0 -0 -5 0 0 0 1:0.6709 2:0.030013 3:0.013906 4:0.06859 5:0.73697 6:0.0057921 7:0.016416 8:0.02574 
-4.053288907820067 -0.7889620574050311 -0.4603321621202705 -5 3.929871898720676 3.632147425563658 2.853214792604208 1:0.7231 2:0.025104 3:0.019192 4:0.067177 5:0.68611 6:0.0040076 7:0.013869 8:0.025813 
-0 -0 -0 -2.018513085205034 0 0 0 1:0.65364 2:0.018261 3:0.034511 4:0.083134 5:0.75069 6:0.0023497 7:0.0080755 8:0.02676 
-0 -0 -0 -5 0 0 0 1:0.69133 2:0.018026 3:0.030059 4:0.074512 5:0.7173 6:0.0017805 7:0.0059469 8:0.026778 
-0 -1.307751409268617 -0 -0 0 0 0 1:0.50706 2:0.22305 3:0.017914 4:0.12373 5:0.82127 6:0.012985 7:0.043348 8:0.031372 
-0 -5 -0 -0 -0 0 0 1:0.35298 2:0.88811 3:0.012943 4:0.017168 5:0.0021497 6:0.1951 7:0.21933 8:0.0051932 
-5 -5 -0 -0 -0 0 0 1:0.61252 2:0.75988 3:0.012476 4:0.019135 5:0.0018376 6:0.13399 7:0.16985 8:0.008967 
-5 -5 -0 -0 -0 0 0 1:0.77455 2:0.6115 3:0.019183 4:0.018841 5:0.0017382 6:0.09243 7:0.12935 8:0.011655 
-5 -0.7469215078376202 -0 -0 -0 0 0 1:0.83214 2:0.53921 3:0.016722 4:0.021718 5:0.0019909 6:0.070708 7:0.10414 8:0.014053 
-5 -0 -0 -0 -0 0 0 1:0.88211 2:0.4605 3:0.019077 4:0.020726 5:0.0022435 6:0.050616 7:0.078779 8:0.016129 
-5 -0 -0 -0.6819867813510766 -0 0 0 1:0.91215 2:0.40175 3:0.01772 4:0.02193 5:0.002764 6:0.039502 7:0.061864 8:0.019794 
-0 -4.25307849216238 -0 -0 -0 0 0 1:0.17361 2:0.90244 3:0.013892 4:0.016162 5:0.0023437 6:0.28446 7:0.27217 8:0.0037714 
-0 -5 -0 -0 -0 0 0 1:0.14616 2:0.93293 3:0.01188 4:0.02221 5:0.0023644 6:0.23942 7:0.22412 8:0.0092325 
-0 -5 -0 -0.4221737438800878 -0.3916929392992765 0 0.8275623451467794 1:0.04399 2:0.91955 3:0.012494 4:0.0249 5:0.0025008 6:0.33641 7:0.19586 8:0.013511 
-5 -0 -0 -0 -0 0 0 1:0.74517 2:0.61167 3:0.015244 4:0.011619 5:0.0013788 6:0.17314 7:0.20054 8:0.0030048 
-5 -0 -0 -0 -0 4.697096784323432 0 1:0.87518 2:0.40497 3:0.018348 4:0.0079094 5:0.0010625 6:0.16641 7:0.20483 8:0.0019383 
-5 -5 -0 -0 -0 0 0 1:0.42312 2:0.86189 3:0.042209 4:0.01113 5:0.00065058 6:0.21059 7:0.17797 8:0.013536 
-5 -5 -0 -0 -0 0 0 1:0.55441 2:0.80635 3:0.040466 4:0.011842 5:0.00090288 6:0.15204 7:0.13148 8:0.015434 
-5 -5 -0 -0 -0 0 0 1:0.70383 2:0.69336 3:0.044044 4:0.012879 5:0.0010906 6:0.1085 7:0.098528 8:0.017252 
-5 -5 -0.6690031144124665 -0 -0 0 0 1:0.79218 2:0.59747 3:0.046744 4:0.013553 5:0.0016095 6:0.083398 7:0.076126 8:0.019168 
-3.07021602210539 -0 -0 -0 -0 0 0 1:0.42289 2:0.50189 3:0.046665 4:0.0057766 5:0.00058296 6:0.62264 7:0.42352 8:0.0012155 
-5 -0 -0 -0 -0 5 0 1:0.5552 2:0.24772 3:0.04562 4:0.0037723 5:0.00040843 6:0.43388 7:0.66336 8:0.00096706 
-5 -0 -0 -0 -0 0 0 1:0.55814 2:0.73353 3:0.019405 4:0.006243 5:0.00069547 6:0.36686 7:0.12412 8:0.0029394 
-5 -0 -0 -0 -0 0 0 1:0.70941 2:0.65421 3:0.022669 4:0.0065264 5:0.00082084 6:0.24613 7:0.087086 8:0.0034649 
-5 -0 -0 -0 -0 0 0 1:0.80708 2:0.56166 3:0.019334 4:0.0065779 5:0.0012211 6:0.17011 7:0.061574 8:0.0041456 
-5 -0 -0 -0 -0 0 0 1:0.86266 2:0.48844 3:0.022087 4:0.0071 5:0.001823 6:0.12085 7:0.045444 8:0.0052663 
-5 -0 -0 -0 -0 0 0 1:0.89697 2:0.431 3:0.023212 4:0.0062358 5:0.0022659 6:0.088443 7:0.03527 8:0.0053425 
-5 -0 -0 -0 -0 0 0 1:0.65782 2:0.55272 3:0.019082 4:0.0048298 5:0.00048766 6:0.47309 7:0.19382 8:0.0023624 
-5 -0 -0 -0 -0 5 0 1:0.79215 2:0.20465 3:0.022295 4:0.0041618 5:0.00053323 6:0.51792 7:0.24869 8:0.0024079 
-0 -0 -0 -0 -0 5 0 1:0.42122 2:0.076964 3:0.022618 4:0.0051986 5:0.00038924 6:0.87194 7:0.23626 8:0.0041101 
-5 -0 -0 -0 -0 5 0 1:0.6123 2:0.081345 3:0.021032 4:0.0056386 5:0.00050214 6:0.77138 7:0.15146 8:0.0051572 
-5 -0 -0 -0 -0 5 0 1:0.71531 2:0.065364 3:0.021297 4:0.0050203 5:0.00048345 6:0.68599 7:0.11386 8:0.0054432 
-5 -0 -0 -0 -0 5 0 1:0.80409 2:0.054132 3:0.018869 4:0.0051449 5:0.00061862 6:0.58654 7:0.077917 8:0.0057745 
-5 -0 -0 -0 -0 5 0 1:0.86617 2:0.04666 3:0.018629 4:0.0046116 5:0.00063524 6:0.49365 7:0.058954 8:0.0069592 
-5 -0 -0 -0 -0 5 0 1:0.91828 2:0.039188 3:0.019829 4:0.0044493 5:0.00085297 6:0.39076 7:0.045485 8:0.007323 
-0 -0 -0 -0 -0 5 0 1:0.1804 2:0.095829 3:0.025993 4:0.0053555 5:0.00040927 6:0.92644 7:0.31505 8:0.0038664 
-0 -0 -0 -0 -0 5 0 1:0.083611 2:0.073027 3:0.023875 4:0.0046902 5:0.0002927 6:0.91004 7:0.39863 8:0.0027283 
-5 -0 -0 -0 -0 5 0 1:0.69848 2:0.062058 3:0.023528 4:0.0046731 5:0.00043735 6:0.63704 7:0.31917 8:0.0031691 
-5 -0 -0 -0 -0 5 0 1:0.80939 2:0.03638 3:0.01745 4:0.0041648 5:0.00060614 6:0.37703 7:0.44842 8:0.0021641 
-5 -0 -0 -0 -0 0 0 1:0.63334 2:0.017835 3:0.012576 4:0.005138 5:0.00054821 6:0.77322 7:0.022597 8:0.00114 
-5 -0 -0 -0 -0 5 0 1:0.81005 2:0.013607 3:0.0081871 4:0.0041916 5:0.00052319 6:0.58597 7:0.013684 8:0.0010743 
-5 -0 -0 -0 -0 5 0 1:0.90952 2:0.010927 3:0.013513 4:0.0035716 5:0.00051605 6:0.4152 7:0.0084255 8:0.00087358 
-0 -0 -0 -0 -0.02711173737227252 0 0 1:0.013038 2:0.014719 3:0.01049 4:0.0033094 5:0.0001415 6:0.99961 7:0.016221 8:0.00053518 
-5 -0 -0 -0 -0 5 0 1:0.56797 2:0.01785 3:0.0078243 4:0.0047456 5:0.00033518 6:0.8089 7:0.15063 8:0.00098244 
-5 -0 -0 -0 -0 0 0 1:0.62121 2:0.018186 3:0.0054171 4:0.0057139 5:0.00068725 6:0.78313 7:0.020236 8:0.00081502 
-5 -0 -0 -0 -0 5 0 1:0.83737 2:0.017814 3:0.0069326 4:0.0048529 5:0.00069634 6:0.5461 7:0.013625 8:0.00073869 
-5 -0 -0 -0 -0 5 0 1:0.96821 2:0.012855 3:0.006029 4:0.0051996 5:0.000851 6:0.24956 7:0.0082594 8:0.00088679 
-5 -0 -0 -0 -0 5 0 1:0.99332 2:0.0048493 3:0.0058724 4:0.0030879 5:0.0005443 6:0.11495 7:0.0056975 8:0.0007619 
-5 -0 -5 -0.9651518931562596 -0.2042014049728471 5 0 1:0.99878 2:0.0022231 3:0.0074627 4:0.002903 5:0.00062308 6:0.048472 7:0.0033536 8:0.00086113 
-5 -0 -0 -0 -0 0 0 1:0.67423 2:0.012772 3:0.0047372 4:0.0052219 5:0.00066785 6:0.73785 7:0.027991 8:0.00054897 
-5 -0 -0 -0 -0 5 0 1:0.84242 2:0.0069358 3:0.0034902 4:0.0026604 5:0.00042507 6:0.5382 7:0.024672 8:0.00037786 
-5 -0 -0 -0 -0 0 0 1:0.72162 2:0.047174 3:0.016373 4:0.012155 5:0.0022697 6:0.68912 7:0.040119 8:0.010694 
-5 -0 -0 -0 -0 5 0 1:0.88817 2:0.043119 3:0.017126 4:0.0097992 5:0.0016928 6:0.45614 7:0.027326 8:0.0096104 
-5 -0 -0 -0 -0 5 0 1:0.95894 2:0.029881 3:0.016677 4:0.0073164 5:0.001339 6:0.28072 7:0.018595 8:0.0074811 
-5 -0 -0 -0 -0 5 0 1:0.98686 2:0.023839 3:0.011725 4:0.0069604 5:0.0014007 6:0.15863 7:0.012129 8:0.0062857 
-5 -0 -1.101156940838205 -0 -0 5 0 1:0.99546 2:0.017449 3:0.0079327 4:0.0061148 5:0.001767 6:0.092366 7:0.0089428 8:0.0059454 
-5 -0 -5 -5 -3.0843161838589 5 2.707711481245378 1:0.99832 2:0.011194 3:0.010645 4:0.0059444 5:0.0023193 6:0.054817 7:0.0062955 8:0.0059846 
-5 -0 -0 -0 -0 0 0 1:0.54677 2:0.052461 3:0.020639 4:0.013026 5:0.0021583 6:0.83304 7:0.060015 8:0.011527 
-5 -0 -0 -0 -0 0 0 1:0.46407 2:0.063458 3:0.029196 4:0.01443 5:0.0020382 6:0.88101 7:0.056474 8:0.01324 
-5 -0 -0 -0 -0 5 0 1:0.89675 2:0.030271 3:0.017121 4:0.0071919 5:0.0012768 6:0.44007 7:0.029491 8:0.0072129 
-5 -0 -0 -0 -0 5 0 1:0.94081 2:0.019315 3:0.011509 4:0.0061201 5:0.0012847 6:0.33661 7:0.031514 8:0.0055965 
-5 -0 -0 -0 -0 0 0 1:0.57819 2:0.052245 3:0.032013 4:0.00011155 5:3.3524e-005 6:0.81323 7:0.024334 8:0.00015025 
-5 -0 -0 -0 -0 0 0 1:0.78896 2:0.04635 3:0.026911 4:0.00012052 5:2.9176e-005 6:0.6119 7:0.015977 8:0.00012528 
-5 -0 -0 -0 -0 5 0 1:0.91242 2:0.04228 3:0.037015 4:0.00020035 5:6.7983e-005 6:0.4052 7:0.012264 8:0.00020395 
-0 -0 -0 -0 -0 1.909450073088512 0 1:0.19535 2:0.045502 3:0.043436 4:0.002959 5:0.00035738 6:0.96662 7:0.15336 8:0.0014678 
-5 -0 -0 -0 -0 0 0 1:0.42403 2:0.059794 3:0.052373 4:0.0039048 5:0.00057524 6:0.89907 7:0.07443 8:0.0020101 
-5 -0 -0 -0 -0 0 0 1:0.56037 2:0.060143 3:0.049979 4:0.0037152 5:0.00064323 6:0.82306 7:0.049345 8:0.0020466 
-5 -0 -0 -0 -0 0 0 1:0.71469 2:0.055458 3:0.039093 4:0.0036428 5:0.00082797 6:0.69542 7:0.031495 8:0.0020601 
-5 -0 -0 -0 -0 5 0 1:0.83668 2:0.050982 3:0.041685 4:0.0029381 5:0.00096366 6:0.5433 7:0.020981 8:0.002237 
-0 -0 -0 -0 -0 5 0 1:0.11171 2:0.040461 3:0.041815 4:0.0024125 5:0.00030282 6:0.97766 7:0.16827 8:0.0012162 
-0 -0 -0 -0 -0 5 0 1:0.064918 2:0.036433 3:0.032411 4:0.0021318 5:0.0002299 6:0.97296 7:0.2162 8:0.00095057 
-0 -0 -0.06062046224023947 -0 -0 0 0 1:0.013431 2:0.041883 3:0.036806 4:0.0018007 5:0.00024397 6:0.99789 7:0.030236 8:0.0013476 
-0 -0 -0 -0 -0 5 0 1:0.36457 2:0.042475 3:0.044896 4:0.0028515 5:0.00041513 6:0.89547 7:0.24777 8:0.0014874 
-5 -0 -0 -0 -0 5 0 1:0.55573 2:0.038508 3:0.044172 4:0.0029551 5:0.00054217 6:0.73517 7:0.38372 8:0.001056 
-0 -0 -0 -0 -0 5 0 1:0.056924 2:0.035467 3:0.020151 4:0.00053738 5:4.5235e-005 6:0.97977 7:0.18748 8:0.00034411 
-0.944464337519639 -0 -0 -0 -0 0 0 1:0.44888 2:0.03874 3:0.015866 4:0.0016487 5:0.00021135 6:0.88904 7:0.079726 8:0.0032676 
-5 -0 -0 -0 -0 0 0 1:0.60259 2:0.035593 3:0.013689 4:0.00081941 5:7.9169e-005 6:0.79502 7:0.057898 8:0.0038424 
-5 -0 -0 -0 -0 0 0 1:0.74137 2:0.030945 3:0.016928 4:0.00074526 5:0.0001293 6:0.66888 7:0.041305 8:0.0042997 
-0 -0 -0 -0 -0 5 0 1:0.015982 2:0.031992 3:0.020613 4:0.00056234 5:4.6118e-005 6:0.97701 7:0.20917 8:0.00020383 
-0 -0 -0 -0 -0 5 0 1:0.0069474 2:0.028935 3:0.017139 4:0.00044659 5:3.1578e-005 6:0.97018 7:0.23993 8:0.00015059 
-0 -0 -0 -0 -0 5 0 1:0.24685 2:0.03839 3:0.021051 4:0.00063656 5:6.2213e-005 6:0.92635 7:0.28111 8:0.0002506 
-5 -0 -0 -0 -0 5 0 1:0.4594 2:0.037059 3:0.015837 4:0.00063906 5:7.4272e-005 6:0.77855 7:0.42566 8:0.00024318 
-0 -0 -0 -0 -0 5 0 1:0.038478 2:0.030913 3:0.018974 4:0.0096596 5:0.00045944 6:0.67327 7:0.73737 8:0.0095926 
-0 -0 -0 -0 -0 5 3.600736235821718 1:0.11724 2:0.03505 3:0.024701 4:0.014685 5:0.0008729 6:0.63109 7:0.76409 8:0.045692 
-0.551086280990713 -0 -0 -0.5850373409917957 -0 5 5 1:0.20728 2:0.035149 3:0.027788 4:0.015764 5:0.00080969 6:0.57817 7:0.78511 8:0.063995 
-5 -0 -0 -0 -0 5 0 1:0.33667 2:0.036943 3:0.02837 4:0.021558 5:0.0012717 6:0.63158 7:0.69225 8:0.076919 
-5 -0 -0 -0 -0 5 2.493057544647242 1:0.48959 2:0.039022 3:0.034604 4:0.020952 5:0.0011666 6:0.55821 7:0.66151 8:0.089164 
-5 -0 -0 -0 -0 5 0 1:0.68912 2:0.035683 3:0.040696 4:0.022569 5:0.0011811 6:0.49976 7:0.51345 8:0.090982 
-0 -0 -0 -0 -0.2225496332173794 5 0 1:0.019271 2:0.028281 3:0.020583 4:0.0076778 5:0.00038081 6:0.67392 7:0.73767 8:0.0034324 
-0 -0 -0 -0 -0 5 0 1:0.015414 2:0.026713 3:0.015142 4:0.0059616 5:0.0002909 6:0.70362 7:0.70972 8:0.0018188 
-0 -0 -0 -0 -0 5 0 1:0.020283 2:0.032385 3:0.025125 4:0.010481 5:0.00041919 6:0.73559 7:0.67544 8:0.021802 
-0 -0 -0 -0 -0 5 0 1:0.01952 2:0.030245 3:0.026641 4:0.01049 5:0.00029385 6:0.82655 7:0.56032 8:0.0273 
-0 -0 -0 -0 -0 5 0 1:0.021877 2:0.02741 3:0.030664 4:0.0099383 5:0.00018572 6:0.88876 7:0.45467 8:0.033451 
-0 -0 -0 -0 -0 5 0 1:0.14356 2:0.028666 3:0.017295 4:0.0099054 5:0.00068416 6:0.51883 7:0.842 8:0.0047417 
-5 -0 -0.6311238013800953 -3.755613496852062 -0 5 0 1:0.24518 2:0.024769 3:0.014301 4:0.0083799 5:0.00071057 6:0.40199 7:0.8817 8:0.0038243 
-0 -0 -0 -0 -0 -0 2.048317680003956 1:0.39873 2:0.012138 3:0.074474 4:0.0078294 5:0.00034754 6:0.10554 7:0.90301 8:0.093251 
-0 -0 -0 -0 -0 -0 5 1:0.66556 2:0.0059278 3:0.064418 4:0.0094971 5:0.00064333 6:0.05032 7:0.7315 8:0.12305 
-0 -0 -0 -0 -0 -0 5 1:0.021069 2:0.016866 3:0.058532 4:0.0046734 5:0.00016434 6:0.63861 7:0.76188 8:0.086827 
-5 -0 -0 -0 -0 -5 0 1:0.82398 2:0.034008 3:0.10668 4:0.007509 5:0.0015335 6:0.35149 7:0.42999 8:0.0046178 
-0 -0 -0 -0 -0 -5 0 1:0.021737 2:0.04219 3:0.11755 4:0.0065853 5:0.0010007 6:0.80673 7:0.57713 8:0.0014516 
-5 -0 -0 -0 -0 -5 0 1:0.91637 2:0.032557 3:0.037994 4:0.020199 5:0.0033942 6:0.088929 7:0.38593 8:0.02233 
-5 -0 -0 -0 -0 -5 0 1:0.9436 2:0.027987 3:0.042203 4:0.019141 5:0.0037723 6:0.074308 7:0.31704 8:0.025326 
-5 -0 -0 -0 -0 -5 0 1:0.95804 2:0.023628 3:0.045693 4:0.015744 5:0.0038829 6:0.068121 7:0.27165 8:0.028639 
-5 -0 -5 -0 -3.185152022873458 -5 0 1:0.96941 2:0.018526 3:0.052317 4:0.012797 5:0.0047528 6:0.060463 7:0.2288 8:0.031325 
-0 -0 -0 -0 -0 -5 0 1:0.056024 2:0.067358 3:0.071419 4:0.025432 5:0.0038534 6:0.8069 7:0.57748 8:0.04471 
-5 -0 -0 -0 -0 -5 0 1:0.9164 2:0.021148 3:0.020746 4:0.015086 5:0.0033703 6:0.059548 7:0.39434 8:0.0065067 
-5 -0 -0 -0 -0 -5 0 1:0.92835 2:0.013231 3:0.015721 4:0.0088172 5:0.0039827 6:0.044782 7:0.36826 8:0.0060002 
-0 -0.04602771080578939 -0 -0 -0 -0 0 1:0.36657 2:0.050198 3:0.034717 4:0.001521 5:0.00017935 6:0.13967 7:0.91748 8:0.024934 
-0 -0 -0 -0 -0 -5 0 1:0.014088 2:0.033742 3:0.034574 4:0.0011894 5:0.00014807 6:0.75854 7:0.64954 8:0.013514 
-0 -0 -2.599316619790688 -0 -0 -0 0 1:0.58411 2:0.055018 3:0.14862 4:0.001656 5:0.00013272 6:0.21835 7:0.76545 8:0.010141 
-0 -0 -5 -0 -0 -0 0 1:0.70248 2:0.058106 3:0.16419 4:0.002064 5:0.00018444 6:0.19158 7:0.66281 8:0.01247 
-5 -0 -0 -0 -0 -5 0 1:0.51369 2:0.03804 3:0.018402 4:0.00092648 5:0.00011879 6:0.84793 7:0.12389 8:0.00011406 
-5 -0 -0 -0 -0 -5 0 1:0.64486 2:0.067117 3:0.012235 4:0.00088665 5:0.000122 6:0.75973 7:0.048141 8:0.000156 
-5 -0 -0 -0 -0 -5 0 1:0.76579 2:0.049301 3:0.013069 4:0.00059378 5:0.00011592 6:0.64039 7:0.02927 8:0.00016142 
-5 -0 -0 -0 -0 -5 0 1:0.841 2:0.034989 3:0.0086229 4:0.00060968 5:0.00020479 6:0.5396 7:0.015725 8:0.00018216 
-5 -0 -0 -0 -0 -5 0 1:0.87723 2:0.024019 3:0.0091986 4:0.00044483 5:0.00029607 6:0.47931 7:0.0081734 8:0.00026755 
-5 -0 -0 -0 -0 -5 0 1:0.89874 2:0.022155 3:0.016583 4:0.00046332 5:0.00076869 6:0.43759 7:0.0047922 8:0.00081737 
-5 -0 -0 -0 -0 -5 0 1:0.35773 2:0.049281 3:0.021436 4:0.00083773 5:0.00010765 6:0.91226 7:0.19218 8:0.00013215 
-0 -0 -0 -0 -0 -5 0 1:0.22633 2:0.040053 3:0.01974 4:0.00089081 5:0.00010864 6:0.90761 7:0.35076 8:9.3791e-005 
-0 -0 -0 -0 -0 -5 0 1:0.083631 2:0.041659 3:0.021153 4:0.0010712 5:0.0001367 6:0.83349 7:0.54416 8:0.00010964 
-0 -0 -0 -0 -0 -1.606546857411943 0 1:0.026497 2:0.040052 3:0.0092488 4:0.0007943 5:7.9313e-005 6:0.73389 7:0.6775 8:6.0268e-005 
-5 -0 -0 -0 -0 -5 0 1:0.25006 2:0.072078 3:0.012392 4:0.00086388 5:0.00011218 6:0.96432 7:0.046902 8:8.1161e-005 
-5 -0 -0 -0 -0 -5 0 1:0.038524 2:0.058838 3:0.016058 4:0.00088246 5:0.00010597 6:0.99713 7:0.022804 8:9.3489e-005 
-5 -0 -0 -0.3423495631886815 -0.4469954026901997 -5 0 1:0.019784 2:0.052182 3:0.008597 4:0.00075286 5:7.1596e-005 6:0.99835 7:0.010827 8:8.6377e-005 
-5 -0 -0 -0 -0 -5 0 1:0.75348 2:0.025925 3:0.016316 4:0.00066654 5:0.00011217 6:0.62157 7:0.21209 8:0.00012592 
-5 -0 -0 -0 -0 -5 0 1:0.87506 2:0.014324 3:0.007749 4:0.00059175 5:0.00023058 6:0.31128 7:0.37028 8:0.00019188 
-0 -0 -0 -0 -0 -5 0 1:0.88934 2:0.0066568 3:0.010541 4:0.00052117 5:0.00086822 6:0.19094 7:0.41528 8:0.00090914 
-5 -0 -0 -0 -0 -5 0 1:0.50639 2:0.040561 3:0.029562 4:0.0009741 5:0.0001111 6:0.82623 7:0.24166 8:0.00021527 
-5 -0 -0 -0 -0 -5 0 1:0.67299 2:0.032097 3:0.021711 4:0.0014756 5:0.00019491 6:0.72821 7:0.12369 8:0.00031918 
-5 -0 -0 -0 -0 -5 0 1:0.80596 2:0.02446 3:0.026428 4:0.00044862 5:7.6962e-005 6:0.58221 7:0.1008 8:0.00024287 
-5 -0 -0 -0 -0 -5 0 1:0.86576 2:0.018207 3:0.020475 4:0.0021919 5:0.00044501 6:0.49632 7:0.057965 8:0.00032704 
-5 -0 -0 -0 -0 -5 0 1:0.89081 2:0.012259 3:0.01656 4:0.00065885 5:0.00046035 6:0.45272 7:0.032921 8:0.00031934 
-5 -0 -0 -0 -0 -5 0 1:0.90774 2:0.0085337 3:0.021069 4:0.0006545 5:0.00096353 6:0.41836 7:0.021393 8:0.00082631 
-0 -0 -0 -0 -0 -5 0 1:0.30942 2:0.046693 3:0.027599 4:0.0014247 5:0.0001528 6:0.89117 7:0.3273 8:0.0005204 
-0 -0 -0 -0 -0 -5 0 1:0.1651 2:0.049022 3:0.025433 4:0.0010537 5:0.00011206 6:0.86164 7:0.47672 8:0.00034815 
-0 -0 -0 -0 -0 -5 0 1:0.073577 2:0.049996 3:0.023474 4:0.00086733 5:8.6402e-005 6:0.81374 7:0.57391 8:0.00024382 
-0 -0 -0 -0 -0 -5 0 1:0.02795 2:0.04698 3:0.022944 4:0.00064938 5:5.7148e-005 6:0.79798 7:0.59976 8:0.00020612 
-0 -0 -0 -0 -0 -5 0 1:0.014118 2:0.042257 3:0.020196 4:0.00062292 5:5.6613e-005 6:0.7435 7:0.66695 8:0.0001447 
-1.73688128181818 -0 -0 -0 -0 -5 0 1:0.20573 2:0.045433 3:0.031559 4:0.0011612 5:0.00012067 6:0.96085 7:0.17715 8:0.00040724 
-5 -0 -0 -0 -0 -5 0 1:0.036758 2:0.039463 3:0.02524 4:0.000988 5:8.3162e-005 6:0.99714 7:0.046548 8:0.00022747 
-5 -0 -2.765743108954596 -0 -0 -5 1.126326048302522 1:0.013195 2:0.03466 3:0.027609 4:0.00075492 5:5.6262e-005 6:0.99827 7:0.036358 8:0.00042402 
-5 -0 -0 -0 -0 -5 0 1:0.7817 2:0.027803 3:0.023335 4:0.0013826 5:0.00021728 6:0.57866 7:0.22973 8:0.0002835 
-5 -0 -0 -0 -0 -5 0 1:0.8862 2:0.016598 3:0.014972 4:0.00052186 5:0.00015737 6:0.29024 7:0.36042 8:0.00029469 
-0 -0 -0 -0 -0 -5 0 1:0.8961 2:0.0074864 3:0.014114 4:0.00047971 5:0.00066872 6:0.19903 7:0.39639 8:0.00089166 
-5 -0 -0 -0 -0 -0 0 1:0.82298 2:0.079802 3:0.059734 4:0.032095 5:0.0038704 6:0.22888 7:0.5011 8:0.090738 
-5 -4.121559914392644 -0 -0 -0 -5 0 1:0.8931 2:0.074921 3:0.056034 4:0.028931 5:0.0043632 6:0.19509 7:0.38467 8:0.082089 
-0 -0 -0 -0 -0 -5 0 1:0.027305 2:0.060395 3:0.030498 4:0.023012 5:0.0022057 6:0.79756 7:0.59805 8:0.019453 
-5 -0 -0 -0 -0 -5 0 1:0.86466 2:0.040236 3:0.021631 4:0.062978 5:0.010209 6:0.24562 7:0.41169 8:0.12805 
-5 -0 -0 -3.589618035802563 -0 -5 0 1:0.90322 2:0.037771 3:0.02128 4:0.061104 5:0.011083 6:0.23909 7:0.32423 8:0.12712 
-5 -0 -0 -5 -0 -5 4.596615570759261 1:0.9297 2:0.036069 3:0.021937 4:0.052972 5:0.0097021 6:0.22139 7:0.25881 8:0.12239 
-0 -0.8324123748015664 -0 -2.104809901902153 -0 -0 0 1:0.066051 2:0.047711 3:0.025721 4:0.044193 5:0.0042491 6:0.32437 7:0.94099 8:0.0068805 
-0 -0 -0 -1.926912554152759 -0 -0 0 1:0.093389 2:0.055711 3:0.030472 4:0.062522 5:0.0076975 6:0.42857 7:0.89387 8:0.02436 
-0 -0 -0 -0 -0 -5 0 1:0.042772 2:0.058872 3:0.040089 4:0.056052 5:0.0064883 6:0.76004 7:0.64054 8:0.044418 
-0 -0 -0 -0 -0 -5 0 1:0.73839 2:0.054824 3:0.04072 4:0.0058881 5:0.0004073 6:0.46622 7:0.48236 8:0.007519 
-5 -0 -0 -0 -0 -5 0 1:0.83802 2:0.050465 3:0.049938 4:0.0053217 5:0.00066648 6:0.41274 7:0.34964 8:0.0071257 
-0 -0 -0 -0 -0 -5 0 1:0.015292 2:0.04682 3:0.016897 4:0.0045907 5:9.0071e-005 6:0.7987 7:0.59943 8:0.0059699 
-0 -0 -0 -0 -0 -5 0 1:0.013235 2:0.041264 3:0.020905 4:0.0042596 5:8.6105e-005 6:0.90527 7:0.42206 8:0.0051661 
-0 -0.6547878845518769 -0 -0 -2.047534500865985 -0 -0 1:0.77258 2:0.034608 3:0.021617 4:0.21063 5:0.047856 6:0.016011 7:0.01234 8:0.5953 
-0.06639273266175098 -0 -0 -5 -0 -0 -0 1:0.15362 2:0.075227 3:0.011587 4:0.57314 5:0.0070158 6:0.6996 7:0.096403 8:0.3786 
-5 -0.1990031507730174 -2.760905912777256 -5 -0.06712249343345365 -2.789015804704375 -1.719386697870983 1:0.093291 2:0.079929 3:0.010082 4:0.61185 5:0.0065857 6:0.71819 7:0.11436 8:0.28554 
-3.899150502803954 -0 -0 -0 -0 -0 -0 1:0.6622 2:0.047213 3:0.017021 4:0.32993 5:0.031798 6:0.28692 7:0.053182 8:0.60328 
-5 -0 -0 -0 -0 -0 -0 1:0.73361 2:0.045913 3:0.015522 4:0.33238 5:0.040049 6:0.26636 7:0.060296 8:0.52231 
-4.394700848243404 -0 -0 -0 -0 -1.840051802156743 -5 1:0.74321 2:0.018219 3:0.012393 4:0.047504 5:0.018503 6:0.02838 7:0.41842 8:0.51834 
-0 -0 -0 -0 -0 -0 -1.051872601194755 1:0.71527 2:0.021212 3:0.010327 4:0.077731 5:0.023094 6:0.028954 7:0.44049 8:0.53515 
-0 -0 -0 -3.125467988372988 -0 -0 -0 1:0.80617 2:0.0029737 3:0.005362 4:0.16984 5:0.021645 6:0.022116 7:0.21884 8:0.52188 
-0 -0 -1.744736391628802 -0 -0 -0 -0 1:0.64546 2:0.037047 3:0.22065 4:0.013532 5:0.004998 6:0.033825 7:0.028763 8:0.72879 
-2.898105732850572 -0 -5 -0 -0 -5 -5 1:0.0057522 2:0.046017 3:0.29352 4:0.014387 5:0.0017309 6:0.57713 7:0.7178 8:0.25136 
-5 -2.279057492009639 -5 -5 -0.738557798304769 -5 -5 1:0.58769 2:0.036457 3:0.26093 4:0.018906 5:0.0059411 6:0.1894 7:0.69292 8:0.2623 
-2.921538574941272 -0 -0 -0 -0 -0 -0 1:0.71237 2:0.01113 3:0.026069 4:0.02168 5:0.0074274 6:0.11996 7:0.041778 8:0.68925 
-5 -0.4773958033388894 -0 -0 -0 -0 -0 1:0.72997 2:0.081003 3:0.03262 4:0.033454 5:0.010474 6:0.1102 7:0.37073 8:0.55561 
